{
  "model_type": "refrac+head",
  "seed": 42,
  "n_params": 10745340,
  "best_val_loss": 1.479090690612793,
  "total_time": 2641.1105041503906,
  "config": {
    "n_layer": 6,
    "n_head": 6,
    "n_embd": 384,
    "block_size": 256,
    "max_iters": 5000,
    "dropout": 0.2,
    "batch_size": 64
  },
  "history": [
    {
      "iter": 0,
      "train_loss": 4.164022445678711,
      "val_loss": 4.169353008270264,
      "elapsed": 14.119911193847656
    },
    {
      "iter": 500,
      "train_loss": 1.9732128381729126,
      "val_loss": 2.052370309829712,
      "elapsed": 285.11158323287964
    },
    {
      "iter": 1000,
      "train_loss": 1.4157419204711914,
      "val_loss": 1.6108344793319702,
      "elapsed": 547.5067751407623
    },
    {
      "iter": 1500,
      "train_loss": 1.2578740119934082,
      "val_loss": 1.5107895135879517,
      "elapsed": 812.4367530345917
    },
    {
      "iter": 2000,
      "train_loss": 1.1684565544128418,
      "val_loss": 1.4869593381881714,
      "elapsed": 1072.8325402736664
    },
    {
      "iter": 2500,
      "train_loss": 1.1025516986846924,
      "val_loss": 1.479090690612793,
      "elapsed": 1334.552873134613
    },
    {
      "iter": 3000,
      "train_loss": 1.0393002033233643,
      "val_loss": 1.5070233345031738,
      "elapsed": 1594.4359452724457
    },
    {
      "iter": 3500,
      "train_loss": 0.980924665927887,
      "val_loss": 1.529852032661438,
      "elapsed": 1858.0889921188354
    },
    {
      "iter": 4000,
      "train_loss": 0.9228701591491699,
      "val_loss": 1.5532042980194092,
      "elapsed": 2117.715338945389
    },
    {
      "iter": 4500,
      "train_loss": 0.8604017496109009,
      "val_loss": 1.5849461555480957,
      "elapsed": 2380.8672952651978
    },
    {
      "iter": 4999,
      "train_loss": 0.8089115023612976,
      "val_loss": 1.6170730590820312,
      "elapsed": 2640.932916879654
    }
  ],
  "lif_params": {
    "transformer.h.0.attn.threshold": [
      0.001133692916482687,
      -0.00039357441710308194,
      2.6797447204589844,
      1.4067081212997437,
      -3.0131916999816895,
      -0.00018015319074038416
    ],
    "transformer.h.0.attn.leak": [
      4.503342628479004,
      4.484069347381592,
      -0.48673006892204285,
      1.244627833366394,
      -0.848553478717804,
      4.529853343963623
    ],
    "transformer.h.0.attn.steepness": [
      -0.5125126838684082,
      -0.5047606825828552,
      4.4799652099609375,
      2.9135937690734863,
      4.8116021156311035,
      -0.5422465801239014
    ],
    "transformer.h.0.attn.refractory_strength": [
      -0.9463029503822327,
      -0.6557443141937256,
      1.0625791549682617,
      0.3149999976158142,
      0.8217958807945251,
      -0.8671759366989136
    ],
    "transformer.h.0.attn.cross_layer_weight": [
      -2.0,
      -2.0,
      -2.0,
      -2.0,
      -2.0,
      -2.0
    ],
    "transformer.h.0.attn.head_persistence": [
      1.0,
      1.0,
      1.0,
      1.0,
      1.0,
      1.0
    ],
    "transformer.h.0.attn.head_boost_strength": [
      -2.0,
      -2.0,
      -2.0,
      -2.0,
      -2.0,
      -2.0
    ],
    "transformer.h.1.attn.threshold": [
      -0.012898010201752186,
      -0.0002581360167823732,
      0.03418532386422157,
      0.17866156995296478,
      0.0001480143837397918,
      -0.0002833888866007328
    ],
    "transformer.h.1.attn.leak": [
      4.421207427978516,
      3.801846742630005,
      3.919135332107544,
      2.7209930419921875,
      4.302548408508301,
      4.096055030822754
    ],
    "transformer.h.1.attn.steepness": [
      -0.4192902147769928,
      0.1465943306684494,
      0.07910166680812836,
      1.304097056388855,
      -0.2815491259098053,
      -0.03577471151947975
    ],
    "transformer.h.1.attn.refractory_strength": [
      0.5331831574440002,
      -0.5680941939353943,
      0.08329368382692337,
      -1.136348009109497,
      1.204617977142334,
      -0.4278874695301056
    ],
    "transformer.h.1.attn.cross_layer_weight": [
      -1.676773190498352,
      -1.6298761367797852,
      -1.5935577154159546,
      -1.5021456480026245,
      -1.7027109861373901,
      -2.0011942386627197
    ],
    "transformer.h.1.attn.head_persistence": [
      -0.27281492948532104,
      1.8568273782730103,
      -0.13161322474479675,
      -0.2499924749135971,
      -0.18578948080539703,
      -0.3638192117214203
    ],
    "transformer.h.1.attn.head_boost_strength": [
      -2.4379067420959473,
      -3.090651750564575,
      -2.403428316116333,
      -2.265638828277588,
      -2.8296992778778076,
      -2.7901041507720947
    ],
    "transformer.h.2.attn.threshold": [
      0.00019956228788942099,
      -1.1805323362350464,
      -7.862716302042827e-06,
      -0.00036372372414916754,
      0.0009325013961642981,
      -0.0009417195688001812
    ],
    "transformer.h.2.attn.leak": [
      4.128777980804443,
      1.8572219610214233,
      4.460959434509277,
      3.971433401107788,
      3.2104570865631104,
      3.007706642150879
    ],
    "transformer.h.2.attn.steepness": [
      -0.07300172001123428,
      2.0911355018615723,
      -0.4534865915775299,
      0.09178242087364197,
      0.9414097666740417,
      1.2391325235366821
    ],
    "transformer.h.2.attn.refractory_strength": [
      1.809448003768921,
      -1.3871724605560303,
      1.3161818981170654,
      1.4333243370056152,
      1.9737884998321533,
      2.3219475746154785
    ],
    "transformer.h.2.attn.cross_layer_weight": [
      -0.9720937609672546,
      -0.6829780340194702,
      -0.8982417583465576,
      -1.0743399858474731,
      -1.0924148559570312,
      -0.5810258388519287
    ],
    "transformer.h.2.attn.head_persistence": [
      -0.2714465260505676,
      0.023778153583407402,
      -0.333167165517807,
      -0.35312220454216003,
      -0.3987916111946106,
      -0.1275368332862854
    ],
    "transformer.h.2.attn.head_boost_strength": [
      -3.303819417953491,
      -1.0504463911056519,
      -3.105966567993164,
      -3.3116862773895264,
      -3.233086347579956,
      -3.316887140274048
    ],
    "transformer.h.3.attn.threshold": [
      -0.00016457050514873117,
      1.8447844922775403e-05,
      8.807319682091475e-05,
      -0.00019656438962556422,
      -8.067258022492751e-05,
      0.0004024422087240964
    ],
    "transformer.h.3.attn.leak": [
      3.6730518341064453,
      3.835517644882202,
      3.9246537685394287,
      3.57548451423645,
      3.9650282859802246,
      2.7355966567993164
    ],
    "transformer.h.3.attn.steepness": [
      0.4228903353214264,
      0.25401532649993896,
      0.11935427039861679,
      0.5244196653366089,
      0.17362330853939056,
      1.3598612546920776
    ],
    "transformer.h.3.attn.refractory_strength": [
      0.7795101404190063,
      1.8830782175064087,
      0.8852089643478394,
      1.8223685026168823,
      1.702151894569397,
      1.8537853956222534
    ],
    "transformer.h.3.attn.cross_layer_weight": [
      -0.48112860321998596,
      0.6777293086051941,
      -0.7473601698875427,
      -0.02732221409678459,
      0.2744901180267334,
      -0.08763007074594498
    ],
    "transformer.h.3.attn.head_persistence": [
      0.24531243741512299,
      0.43290528655052185,
      -0.20051254332065582,
      0.034475479274988174,
      -0.09207664430141449,
      -0.1376493126153946
    ],
    "transformer.h.3.attn.head_boost_strength": [
      -3.57643723487854,
      -3.4871110916137695,
      -3.3483800888061523,
      -3.5268301963806152,
      -3.5795609951019287,
      -2.8617303371429443
    ],
    "transformer.h.4.attn.threshold": [
      0.00035857962211593986,
      -0.0015948479995131493,
      0.0004926956025883555,
      0.00031561453943140805,
      0.0014009855221956968,
      -3.494340489851311e-06
    ],
    "transformer.h.4.attn.leak": [
      2.600527286529541,
      2.2132186889648438,
      3.479356288909912,
      3.384255886077881,
      2.9981324672698975,
      3.639573097229004
    ],
    "transformer.h.4.attn.steepness": [
      1.4358240365982056,
      1.8874776363372803,
      0.5568327307701111,
      0.6351592540740967,
      1.0930124521255493,
      0.4007522761821747
    ],
    "transformer.h.4.attn.refractory_strength": [
      1.6855964660644531,
      1.7876486778259277,
      1.0611920356750488,
      -1.5201623439788818,
      1.570085883140564,
      1.493776798248291
    ],
    "transformer.h.4.attn.cross_layer_weight": [
      0.4222703278064728,
      0.44654950499534607,
      0.11590007692575455,
      -0.48811671137809753,
      0.24761395156383514,
      0.0755220502614975
    ],
    "transformer.h.4.attn.head_persistence": [
      0.25434479117393494,
      0.16898202896118164,
      0.24959677457809448,
      0.24806684255599976,
      0.31869810819625854,
      0.4002326428890228
    ],
    "transformer.h.4.attn.head_boost_strength": [
      -2.7399723529815674,
      -2.494201183319092,
      -3.354591131210327,
      -3.1802566051483154,
      -3.167080879211426,
      -3.412102699279785
    ],
    "transformer.h.5.attn.threshold": [
      0.0004725902108475566,
      0.0001452667493140325,
      0.000282469904050231,
      -0.00037677522050216794,
      -4.2816067434614524e-05,
      -0.0009453856619074941
    ],
    "transformer.h.5.attn.leak": [
      3.515585422515869,
      3.4167420864105225,
      3.6218345165252686,
      3.5885560512542725,
      3.217182159423828,
      2.904555082321167
    ],
    "transformer.h.5.attn.steepness": [
      0.4633727967739105,
      0.590639054775238,
      0.3648584485054016,
      0.4157536029815674,
      0.7826891541481018,
      1.0664137601852417
    ],
    "transformer.h.5.attn.refractory_strength": [
      0.9319511651992798,
      0.07800355553627014,
      0.5198623538017273,
      0.8086305260658264,
      1.0443217754364014,
      1.4833312034606934
    ],
    "transformer.h.5.attn.cross_layer_weight": [
      -1.6042267084121704,
      -1.8431445360183716,
      -1.1081867218017578,
      -0.9915633797645569,
      -0.7462871670722961,
      -0.5240446925163269
    ],
    "transformer.h.5.attn.head_persistence": [
      1.0,
      1.0,
      1.0,
      1.0,
      1.0,
      1.0
    ],
    "transformer.h.5.attn.head_boost_strength": [
      -3.155751943588257,
      -3.2265169620513916,
      -3.2087080478668213,
      -3.238369941711426,
      -3.0428285598754883,
      -2.7909750938415527
    ]
  }
}