{
  "model_type": "refrac+head",
  "seed": 777,
  "n_params": 10745340,
  "best_val_loss": 1.4869813919067383,
  "total_time": 2707.241124868393,
  "config": {
    "n_layer": 6,
    "n_head": 6,
    "n_embd": 384,
    "block_size": 256,
    "max_iters": 5000,
    "dropout": 0.2,
    "batch_size": 64
  },
  "history": [
    {
      "iter": 0,
      "train_loss": 4.2848920822143555,
      "val_loss": 4.280271053314209,
      "elapsed": 14.0081148147583
    },
    {
      "iter": 500,
      "train_loss": 1.8859440088272095,
      "val_loss": 2.008265495300293,
      "elapsed": 284.3472738265991
    },
    {
      "iter": 1000,
      "train_loss": 1.382193922996521,
      "val_loss": 1.6082195043563843,
      "elapsed": 552.1066188812256
    },
    {
      "iter": 1500,
      "train_loss": 1.2396677732467651,
      "val_loss": 1.5185390710830688,
      "elapsed": 822.4920287132263
    },
    {
      "iter": 2000,
      "train_loss": 1.1540133953094482,
      "val_loss": 1.4869813919067383,
      "elapsed": 1090.8308637142181
    },
    {
      "iter": 2500,
      "train_loss": 1.0808131694793701,
      "val_loss": 1.506870150566101,
      "elapsed": 1361.5178606510162
    },
    {
      "iter": 3000,
      "train_loss": 1.015383005142212,
      "val_loss": 1.5128130912780762,
      "elapsed": 1630.6163308620453
    },
    {
      "iter": 3500,
      "train_loss": 0.954067051410675,
      "val_loss": 1.5432130098342896,
      "elapsed": 1898.1147949695587
    },
    {
      "iter": 4000,
      "train_loss": 0.8963159322738647,
      "val_loss": 1.5770158767700195,
      "elapsed": 2167.551102876663
    },
    {
      "iter": 4500,
      "train_loss": 0.8381487131118774,
      "val_loss": 1.5820584297180176,
      "elapsed": 2437.9381697177887
    },
    {
      "iter": 4999,
      "train_loss": 0.7802676558494568,
      "val_loss": 1.6420708894729614,
      "elapsed": 2707.058944940567
    }
  ],
  "lif_params": {
    "transformer.h.0.attn.threshold": [
      3.0503084659576416,
      -0.0003470635274425149,
      0.002817713189870119,
      0.00018135554273612797,
      2.1637964248657227,
      2.9468581676483154
    ],
    "transformer.h.0.attn.leak": [
      -0.9230538606643677,
      4.458919048309326,
      4.34537935256958,
      4.377394676208496,
      -0.01255381666123867,
      -0.8670393228530884
    ],
    "transformer.h.0.attn.steepness": [
      4.886033535003662,
      -0.4796821177005768,
      -0.33150991797447205,
      -0.3507918119430542,
      4.167286396026611,
      4.844383239746094
    ],
    "transformer.h.0.attn.refractory_strength": [
      1.1289018392562866,
      -0.7076471447944641,
      -0.5231487154960632,
      -0.7479939460754395,
      1.040798306465149,
      1.1719337701797485
    ],
    "transformer.h.0.attn.cross_layer_weight": [
      -2.0,
      -2.0,
      -2.0,
      -2.0,
      -2.0,
      -2.0
    ],
    "transformer.h.0.attn.head_persistence": [
      1.0,
      1.0,
      1.0,
      1.0,
      1.0,
      1.0
    ],
    "transformer.h.0.attn.head_boost_strength": [
      -2.0,
      -2.0,
      -2.0,
      -2.0,
      -2.0,
      -2.0
    ],
    "transformer.h.1.attn.threshold": [
      -0.20334406197071075,
      -0.00394617160782218,
      -0.0017563214059919119,
      -0.06382648646831512,
      0.0033472806680947542,
      -0.0007710214704275131
    ],
    "transformer.h.1.attn.leak": [
      2.728752374649048,
      3.2646372318267822,
      3.482664108276367,
      3.7973740100860596,
      2.4706318378448486,
      4.31209659576416
    ],
    "transformer.h.1.attn.steepness": [
      1.289036512374878,
      0.7441264986991882,
      0.5063973069190979,
      0.18345706164836884,
      1.7006787061691284,
      -0.31442990899086
    ],
    "transformer.h.1.attn.refractory_strength": [
      -0.9571269154548645,
      -0.8280550837516785,
      -0.39398571848869324,
      0.2109493464231491,
      2.2326011657714844,
      1.3942482471466064
    ],
    "transformer.h.1.attn.cross_layer_weight": [
      -1.392767310142517,
      -1.5155394077301025,
      -1.553465723991394,
      -1.4833272695541382,
      -1.5278960466384888,
      -1.5997583866119385
    ],
    "transformer.h.1.attn.head_persistence": [
      -0.24397794902324677,
      0.8201331496238708,
      1.4803276062011719,
      -0.15506131947040558,
      -0.3255424201488495,
      0.14055438339710236
    ],
    "transformer.h.1.attn.head_boost_strength": [
      -2.0798652172088623,
      -2.526744842529297,
      -2.9225361347198486,
      -2.3198976516723633,
      -2.498304843902588,
      -2.7775466442108154
    ],
    "transformer.h.2.attn.threshold": [
      -0.00024575908901169896,
      0.29902923107147217,
      -0.6951665878295898,
      -4.806817014468834e-05,
      0.0003225332184229046,
      -0.0228431299328804
    ],
    "transformer.h.2.attn.leak": [
      4.01756477355957,
      2.053953170776367,
      1.8070203065872192,
      4.400331974029541,
      3.455085039138794,
      4.370907306671143
    ],
    "transformer.h.2.attn.steepness": [
      0.09132534265518188,
      2.003545045852661,
      2.154449462890625,
      -0.39343780279159546,
      0.6780203580856323,
      -0.34415724873542786
    ],
    "transformer.h.2.attn.refractory_strength": [
      1.2005624771118164,
      2.3389194011688232,
      -1.6071757078170776,
      1.6147010326385498,
      2.0486533641815186,
      1.16405189037323
    ],
    "transformer.h.2.attn.cross_layer_weight": [
      -1.2176440954208374,
      -0.4553881883621216,
      -0.8784644603729248,
      -0.3889997899532318,
      -0.4846581816673279,
      -0.9216702580451965
    ],
    "transformer.h.2.attn.head_persistence": [
      -0.4224250018596649,
      0.5976008176803589,
      -0.4826520085334778,
      -0.2231513261795044,
      -0.1907385140657425,
      0.15431419014930725
    ],
    "transformer.h.2.attn.head_boost_strength": [
      -3.4740066528320312,
      -2.0288522243499756,
      -1.3574235439300537,
      -3.1061110496520996,
      -3.379106044769287,
      -3.0874392986297607
    ],
    "transformer.h.3.attn.threshold": [
      -0.0004998000804334879,
      0.03964629024267197,
      0.0007374159176833928,
      -0.00013482583744917065,
      0.0002686237858142704,
      -0.0017492204206064343
    ],
    "transformer.h.3.attn.leak": [
      4.05615758895874,
      2.4153764247894287,
      3.160454511642456,
      4.41282844543457,
      4.2985663414001465,
      4.040337562561035
    ],
    "transformer.h.3.attn.steepness": [
      0.04577171429991722,
      1.574878454208374,
      1.0234407186508179,
      -0.36699530482292175,
      -0.26243820786476135,
      0.03389797359704971
    ],
    "transformer.h.3.attn.refractory_strength": [
      1.7504041194915771,
      -1.898903250694275,
      1.6188628673553467,
      0.8303437829017639,
      1.547399878501892,
      1.5864688158035278
    ],
    "transformer.h.3.attn.cross_layer_weight": [
      0.06979632377624512,
      -1.346738338470459,
      -0.2524617910385132,
      -0.9529955983161926,
      -0.11661682277917862,
      -0.20040300488471985
    ],
    "transformer.h.3.attn.head_persistence": [
      -0.26691731810569763,
      -0.2952304482460022,
      -0.1931193470954895,
      -0.09299875795841217,
      0.02019851841032505,
      0.5229082703590393
    ],
    "transformer.h.3.attn.head_boost_strength": [
      -3.6055924892425537,
      -2.231071710586548,
      -3.320908784866333,
      -3.34724497795105,
      -3.3270225524902344,
      -3.4503068923950195
    ],
    "transformer.h.4.attn.threshold": [
      0.0005292018176987767,
      0.0001923990057548508,
      -6.913594552315772e-05,
      -0.0004768249054905027,
      -0.0005070086917839944,
      0.0002067824825644493
    ],
    "transformer.h.4.attn.leak": [
      3.250753879547119,
      3.1972007751464844,
      3.6812210083007812,
      3.0774950981140137,
      2.6610608100891113,
      2.197805166244507
    ],
    "transformer.h.4.attn.steepness": [
      0.8361716866493225,
      0.9494791626930237,
      0.4052361249923706,
      1.0715140104293823,
      1.4689663648605347,
      1.8589563369750977
    ],
    "transformer.h.4.attn.refractory_strength": [
      1.3972700834274292,
      1.7141666412353516,
      1.290554404258728,
      1.6222599744796753,
      1.9132213592529297,
      1.9728330373764038
    ],
    "transformer.h.4.attn.cross_layer_weight": [
      -1.4014736413955688,
      0.35711389780044556,
      -0.2468472421169281,
      -0.19028349220752716,
      0.8352449536323547,
      0.7117375135421753
    ],
    "transformer.h.4.attn.head_persistence": [
      0.18110482394695282,
      0.19162769615650177,
      0.4183013141155243,
      0.5636513829231262,
      0.2500680685043335,
      0.18793818354606628
    ],
    "transformer.h.4.attn.head_boost_strength": [
      -3.3189144134521484,
      -3.4271111488342285,
      -3.5268282890319824,
      -3.3440260887145996,
      -3.000605344772339,
      -2.4051742553710938
    ],
    "transformer.h.5.attn.threshold": [
      -0.0006208550767041743,
      0.0005857707001268864,
      -0.00039343821117654443,
      0.00038219461566768587,
      -0.00035090144956484437,
      0.00029561901465058327
    ],
    "transformer.h.5.attn.leak": [
      3.1959147453308105,
      3.7720346450805664,
      3.249612331390381,
      2.8650784492492676,
      3.3406667709350586,
      3.6045167446136475
    ],
    "transformer.h.5.attn.steepness": [
      0.8171520233154297,
      0.24086633324623108,
      0.7161821722984314,
      1.116567611694336,
      0.6539092063903809,
      0.39908283948898315
    ],
    "transformer.h.5.attn.refractory_strength": [
      1.0903304815292358,
      0.9020065665245056,
      1.209350824356079,
      1.1488841772079468,
      0.9226022958755493,
      0.9816644787788391
    ],
    "transformer.h.5.attn.cross_layer_weight": [
      0.3011631667613983,
      -1.367613434791565,
      -0.9410496354103088,
      -0.38387569785118103,
      -0.6786544322967529,
      -1.2731362581253052
    ],
    "transformer.h.5.attn.head_persistence": [
      1.0,
      1.0,
      1.0,
      1.0,
      1.0,
      1.0
    ],
    "transformer.h.5.attn.head_boost_strength": [
      -3.179091453552246,
      -3.325213670730591,
      -2.9436309337615967,
      -2.6438496112823486,
      -3.1436843872070312,
      -3.2660939693450928
    ]
  }
}