{
  "model_type": "refrac+head",
  "seed": 99,
  "n_params": 10745340,
  "best_val_loss": 1.4707062244415283,
  "total_time": 2698.279624223709,
  "config": {
    "n_layer": 6,
    "n_head": 6,
    "n_embd": 384,
    "block_size": 256,
    "max_iters": 5000,
    "dropout": 0.2,
    "batch_size": 64
  },
  "history": [
    {
      "iter": 0,
      "train_loss": 4.367108345031738,
      "val_loss": 4.358938694000244,
      "elapsed": 13.750375270843506
    },
    {
      "iter": 500,
      "train_loss": 1.9374728202819824,
      "val_loss": 2.0204062461853027,
      "elapsed": 282.8711361885071
    },
    {
      "iter": 1000,
      "train_loss": 1.3953241109848022,
      "val_loss": 1.6108545064926147,
      "elapsed": 553.0198271274567
    },
    {
      "iter": 1500,
      "train_loss": 1.2440249919891357,
      "val_loss": 1.5044758319854736,
      "elapsed": 821.3634910583496
    },
    {
      "iter": 2000,
      "train_loss": 1.1492412090301514,
      "val_loss": 1.4729270935058594,
      "elapsed": 1087.5320501327515
    },
    {
      "iter": 2500,
      "train_loss": 1.0855611562728882,
      "val_loss": 1.4741723537445068,
      "elapsed": 1356.2867171764374
    },
    {
      "iter": 3000,
      "train_loss": 1.0195119380950928,
      "val_loss": 1.4707062244415283,
      "elapsed": 1622.8755450248718
    },
    {
      "iter": 3500,
      "train_loss": 0.952168881893158,
      "val_loss": 1.495408296585083,
      "elapsed": 1889.0661532878876
    },
    {
      "iter": 4000,
      "train_loss": 0.8918631076812744,
      "val_loss": 1.5439198017120361,
      "elapsed": 2155.1157670021057
    },
    {
      "iter": 4500,
      "train_loss": 0.8278448581695557,
      "val_loss": 1.5734384059906006,
      "elapsed": 2423.0416853427887
    },
    {
      "iter": 4999,
      "train_loss": 0.7728666663169861,
      "val_loss": 1.6253979206085205,
      "elapsed": 2698.0932631492615
    }
  ],
  "lif_params": {
    "transformer.h.0.attn.threshold": [
      2.8960258960723877,
      -1.8488507270812988,
      -3.077761903114151e-06,
      0.0033261217176914215,
      1.6670023202896118,
      -9.583991050021723e-05
    ],
    "transformer.h.0.attn.leak": [
      -0.7786914706230164,
      0.8531932830810547,
      5.209756374359131,
      4.481939792633057,
      0.6874951720237732,
      4.486668109893799
    ],
    "transformer.h.0.attn.steepness": [
      4.609900951385498,
      3.2707841396331787,
      -1.1747113466262817,
      -0.4820724427700043,
      3.29727840423584,
      -0.5046564340591431
    ],
    "transformer.h.0.attn.refractory_strength": [
      0.5315077900886536,
      0.3430832028388977,
      0.4854905605316162,
      -0.6496095061302185,
      1.0952757596969604,
      -0.429499089717865
    ],
    "transformer.h.0.attn.cross_layer_weight": [
      -2.0,
      -2.0,
      -2.0,
      -2.0,
      -2.0,
      -2.0
    ],
    "transformer.h.0.attn.head_persistence": [
      1.0,
      1.0,
      1.0,
      1.0,
      1.0,
      1.0
    ],
    "transformer.h.0.attn.head_boost_strength": [
      -2.0,
      -2.0,
      -2.0,
      -2.0,
      -2.0,
      -2.0
    ],
    "transformer.h.1.attn.threshold": [
      0.0008476692601107061,
      0.43912285566329956,
      -0.05714006349444389,
      -0.0019378431607037783,
      0.000505636038724333,
      0.00025364875909872353
    ],
    "transformer.h.1.attn.leak": [
      3.7886617183685303,
      2.7666397094726562,
      3.7787015438079834,
      2.7475109100341797,
      3.54315447807312,
      3.756484031677246
    ],
    "transformer.h.1.attn.steepness": [
      0.1884864866733551,
      1.2096986770629883,
      0.2142917662858963,
      1.2312052249908447,
      0.47003084421157837,
      0.2811920642852783
    ],
    "transformer.h.1.attn.refractory_strength": [
      0.40015101432800293,
      1.323540449142456,
      -0.2688325345516205,
      -1.026806354522705,
      -0.3032582104206085,
      0.2607000470161438
    ],
    "transformer.h.1.attn.cross_layer_weight": [
      -1.574618935585022,
      -1.615605115890503,
      -1.680307388305664,
      -1.5744127035140991,
      -1.707535743713379,
      -1.7598700523376465
    ],
    "transformer.h.1.attn.head_persistence": [
      0.9600498676300049,
      -0.008702773600816727,
      0.41090473532676697,
      1.876272201538086,
      -0.2335270792245865,
      -0.1436256468296051
    ],
    "transformer.h.1.attn.head_boost_strength": [
      -2.5058510303497314,
      -2.360962390899658,
      -2.423724889755249,
      -3.0719351768493652,
      -2.384049415588379,
      -2.645914077758789
    ],
    "transformer.h.2.attn.threshold": [
      0.4996873736381531,
      -0.002078891731798649,
      0.031638167798519135,
      1.0784709453582764,
      -0.0001181727639050223,
      -0.001097727450542152
    ],
    "transformer.h.2.attn.leak": [
      1.838910460472107,
      3.170988082885742,
      4.49987268447876,
      0.08735056966543198,
      4.491379261016846,
      3.281465768814087
    ],
    "transformer.h.2.attn.steepness": [
      2.201328992843628,
      0.9181979298591614,
      -0.48002371191978455,
      3.8542683124542236,
      -0.4863321781158447,
      0.8616215586662292
    ],
    "transformer.h.2.attn.refractory_strength": [
      2.4791717529296875,
      1.972991704940796,
      -0.4266722798347473,
      2.4522247314453125,
      1.6639363765716553,
      1.834987759590149
    ],
    "transformer.h.2.attn.cross_layer_weight": [
      -0.8028310537338257,
      -0.7388889789581299,
      -1.4789233207702637,
      0.5449568033218384,
      -0.8619266748428345,
      -0.8740359544754028
    ],
    "transformer.h.2.attn.head_persistence": [
      0.1857844740152359,
      0.08303562551736832,
      0.32350921630859375,
      1.3681050539016724,
      -0.2521905303001404,
      -0.14184407889842987
    ],
    "transformer.h.2.attn.head_boost_strength": [
      -1.7505673170089722,
      -3.105380058288574,
      -2.498962163925171,
      -1.0437805652618408,
      -3.1658029556274414,
      -3.302154064178467
    ],
    "transformer.h.3.attn.threshold": [
      0.00038068252615630627,
      -0.00162785267457366,
      0.0005614230176433921,
      -0.00037627576966769993,
      -0.0018888518679887056,
      0.000688284111674875
    ],
    "transformer.h.3.attn.leak": [
      3.8815839290618896,
      3.4697535037994385,
      3.381444215774536,
      3.542638063430786,
      3.2723827362060547,
      4.142734050750732
    ],
    "transformer.h.3.attn.steepness": [
      0.18829350173473358,
      0.5919914245605469,
      0.6254010200500488,
      0.5859490036964417,
      0.8259366750717163,
      -0.11883773654699326
    ],
    "transformer.h.3.attn.refractory_strength": [
      1.7796894311904907,
      1.7616242170333862,
      1.0119743347167969,
      1.7318403720855713,
      1.6074135303497314,
      1.0956230163574219
    ],
    "transformer.h.3.attn.cross_layer_weight": [
      -0.2969740033149719,
      0.29918208718299866,
      -0.7159048914909363,
      -0.4533403813838959,
      0.03532317653298378,
      -0.38583534955978394
    ],
    "transformer.h.3.attn.head_persistence": [
      0.5050550103187561,
      0.49560216069221497,
      0.6254235506057739,
      1.625632405281067,
      -0.1997085064649582,
      0.06230037659406662
    ],
    "transformer.h.3.attn.head_boost_strength": [
      -3.4545040130615234,
      -3.2937047481536865,
      -3.1017966270446777,
      -3.575303792953491,
      -3.2373569011688232,
      -3.256883382797241
    ],
    "transformer.h.4.attn.threshold": [
      0.00043186021503061056,
      0.0021701883524656296,
      -0.05239973962306976,
      0.0033381793182343245,
      -0.00022118361084721982,
      0.0001501428196206689
    ],
    "transformer.h.4.attn.leak": [
      2.4257028102874756,
      2.5480663776397705,
      2.475240707397461,
      3.026059150695801,
      3.7340474128723145,
      3.7831146717071533
    ],
    "transformer.h.4.attn.steepness": [
      1.5746002197265625,
      1.4422425031661987,
      1.4991494417190552,
      1.006518006324768,
      0.3096485733985901,
      0.2433691769838333
    ],
    "transformer.h.4.attn.refractory_strength": [
      1.8364102840423584,
      1.2416605949401855,
      1.7732120752334595,
      1.3212517499923706,
      1.728331208229065,
      0.6972457766532898
    ],
    "transformer.h.4.attn.cross_layer_weight": [
      -0.07312081009149551,
      -0.3853648602962494,
      0.3266116976737976,
      -0.6605736017227173,
      -0.023118361830711365,
      -0.552351713180542
    ],
    "transformer.h.4.attn.head_persistence": [
      0.19146624207496643,
      -0.06089133396744728,
      0.22347180545330048,
      1.8555406332015991,
      0.16257843375205994,
      0.47878098487854004
    ],
    "transformer.h.4.attn.head_boost_strength": [
      -2.4460501670837402,
      -2.303392171859741,
      -2.2640788555145264,
      -3.1992578506469727,
      -3.3942761421203613,
      -3.339517831802368
    ],
    "transformer.h.5.attn.threshold": [
      0.0008388306014239788,
      -3.542305057635531e-05,
      -0.000188113481272012,
      1.0108965635299683,
      -0.00013284954184200615,
      -0.004470330197364092
    ],
    "transformer.h.5.attn.leak": [
      3.553692579269409,
      4.018312931060791,
      3.8144612312316895,
      2.105243682861328,
      3.434183120727539,
      2.7899982929229736
    ],
    "transformer.h.5.attn.steepness": [
      0.4516259431838989,
      0.04070628061890602,
      0.19523054361343384,
      1.8553879261016846,
      0.5913830995559692,
      1.2114269733428955
    ],
    "transformer.h.5.attn.refractory_strength": [
      1.3193790912628174,
      0.7751853466033936,
      0.40475746989250183,
      -1.5113990306854248,
      0.6694832444190979,
      -0.5074307918548584
    ],
    "transformer.h.5.attn.cross_layer_weight": [
      -0.6321706175804138,
      -1.3356022834777832,
      -1.343454360961914,
      -0.25332972407341003,
      -0.5088188648223877,
      -0.6139669418334961
    ],
    "transformer.h.5.attn.head_persistence": [
      1.0,
      1.0,
      1.0,
      1.0,
      1.0,
      1.0
    ],
    "transformer.h.5.attn.head_boost_strength": [
      -3.264049768447876,
      -3.5064666271209717,
      -3.3000175952911377,
      -1.149235725402832,
      -3.309040069580078,
      -2.718186616897583
    ]
  }
}