{
  "model_type": "refrac+head",
  "seed": 668,
  "n_params": 10745340,
  "best_val_loss": 1.4577605724334717,
  "total_time": 2598.192272901535,
  "config": {
    "n_layer": 6,
    "n_head": 6,
    "n_embd": 384,
    "block_size": 256,
    "max_iters": 5000,
    "dropout": 0.2,
    "batch_size": 64
  },
  "history": [
    {
      "iter": 0,
      "train_loss": 4.3031110763549805,
      "val_loss": 4.292369842529297,
      "elapsed": 12.912552118301392
    },
    {
      "iter": 500,
      "train_loss": 1.6727957725524902,
      "val_loss": 1.8374857902526855,
      "elapsed": 270.6941421031952
    },
    {
      "iter": 1000,
      "train_loss": 1.3585901260375977,
      "val_loss": 1.5744131803512573,
      "elapsed": 527.9055728912354
    },
    {
      "iter": 1500,
      "train_loss": 1.2195580005645752,
      "val_loss": 1.4867154359817505,
      "elapsed": 780.57981300354
    },
    {
      "iter": 2000,
      "train_loss": 1.1316943168640137,
      "val_loss": 1.4617494344711304,
      "elapsed": 1034.702296257019
    },
    {
      "iter": 2500,
      "train_loss": 1.0524470806121826,
      "val_loss": 1.4577605724334717,
      "elapsed": 1292.2301919460297
    },
    {
      "iter": 3000,
      "train_loss": 0.9837039113044739,
      "val_loss": 1.4853692054748535,
      "elapsed": 1550.6728501319885
    },
    {
      "iter": 3500,
      "train_loss": 0.9089186787605286,
      "val_loss": 1.5151453018188477,
      "elapsed": 1811.422485113144
    },
    {
      "iter": 4000,
      "train_loss": 0.8496508598327637,
      "val_loss": 1.5275311470031738,
      "elapsed": 2071.6193721294403
    },
    {
      "iter": 4500,
      "train_loss": 0.7798813581466675,
      "val_loss": 1.5942727327346802,
      "elapsed": 2335.6352729797363
    },
    {
      "iter": 4999,
      "train_loss": 0.7142231464385986,
      "val_loss": 1.6463912725448608,
      "elapsed": 2598.0105102062225
    }
  ],
  "lif_params": {
    "transformer.h.0.attn.threshold": [
      0.0014130291528999805,
      3.182619094848633,
      0.00033492667716927826,
      -0.00017763706273399293,
      0.003142795292660594,
      2.0512657165527344
    ],
    "transformer.h.0.attn.leak": [
      5.788867950439453,
      -1.1763488054275513,
      3.80029296875,
      4.770800590515137,
      4.257993221282959,
      0.5355809330940247
    ],
    "transformer.h.0.attn.steepness": [
      -1.8231996297836304,
      5.095136642456055,
      0.30218011140823364,
      -0.6081328988075256,
      -0.20484738051891327,
      3.868943214416504
    ],
    "transformer.h.0.attn.refractory_strength": [
      0.42055413126945496,
      0.822889506816864,
      -0.17371250689029694,
      0.8771973252296448,
      -1.0209866762161255,
      1.3006466627120972
    ],
    "transformer.h.0.attn.cross_layer_weight": [
      -2.0,
      -2.0,
      -2.0,
      -2.0,
      -2.0,
      -2.0
    ],
    "transformer.h.0.attn.head_persistence": [
      1.0,
      1.0,
      1.0,
      1.0,
      1.0,
      1.0
    ],
    "transformer.h.0.attn.head_boost_strength": [
      -2.0,
      -2.0,
      -2.0,
      -2.0,
      -2.0,
      -2.0
    ],
    "transformer.h.1.attn.threshold": [
      0.006525039207190275,
      0.20073889195919037,
      0.34940218925476074,
      0.00010203531564911827,
      1.746432900428772,
      -0.00013980449875816703
    ],
    "transformer.h.1.attn.leak": [
      3.802746534347534,
      4.609354496002197,
      2.491647481918335,
      4.105645179748535,
      -0.2537001371383667,
      2.8467471599578857
    ],
    "transformer.h.1.attn.steepness": [
      0.17318399250507355,
      -0.5652559399604797,
      1.5244470834732056,
      -0.10919948667287827,
      4.282727241516113,
      1.3108649253845215
    ],
    "transformer.h.1.attn.refractory_strength": [
      -0.227619469165802,
      -0.4526251554489136,
      -1.022139310836792,
      0.7665246725082397,
      2.726243257522583,
      1.7318154573440552
    ],
    "transformer.h.1.attn.cross_layer_weight": [
      -1.6225261688232422,
      -1.9298367500305176,
      -1.3580143451690674,
      -1.7338849306106567,
      0.023194948211312294,
      -1.4670788049697876
    ],
    "transformer.h.1.attn.head_persistence": [
      0.6333680152893066,
      -0.02913852035999298,
      -0.1351114958524704,
      -0.26716548204421997,
      1.0402276515960693,
      -0.047729335725307465
    ],
    "transformer.h.1.attn.head_boost_strength": [
      -2.4670352935791016,
      -2.441906690597534,
      -2.1057326793670654,
      -2.584717273712158,
      -0.38381826877593994,
      -2.9407360553741455
    ],
    "transformer.h.2.attn.threshold": [
      -0.264535129070282,
      -0.0003971091937273741,
      0.001170633127912879,
      -0.00018625808297656476,
      -0.445233017206192,
      5.81093700020574e-05
    ],
    "transformer.h.2.attn.leak": [
      2.2064592838287354,
      3.290635347366333,
      4.344125270843506,
      4.319896221160889,
      1.4437874555587769,
      3.9922122955322266
    ],
    "transformer.h.2.attn.steepness": [
      1.8011599779129028,
      0.8794758319854736,
      -0.3442439138889313,
      -0.292330801486969,
      2.7159271240234375,
      0.0474160835146904
    ],
    "transformer.h.2.attn.refractory_strength": [
      -0.9846341609954834,
      2.0845723152160645,
      1.3614230155944824,
      1.8126013278961182,
      2.110217332839966,
      1.3520209789276123
    ],
    "transformer.h.2.attn.cross_layer_weight": [
      -0.7177227139472961,
      -0.14115382730960846,
      -0.9921064972877502,
      -0.6303146481513977,
      0.4742755591869354,
      -1.2156797647476196
    ],
    "transformer.h.2.attn.head_persistence": [
      -0.39458826184272766,
      -0.12504412233829498,
      -0.2906498610973358,
      -0.125486820936203,
      0.11087102442979813,
      -0.16505035758018494
    ],
    "transformer.h.2.attn.head_boost_strength": [
      -2.105813503265381,
      -3.351999521255493,
      -2.8664212226867676,
      -3.3492026329040527,
      -1.7471961975097656,
      -3.2508559226989746
    ],
    "transformer.h.3.attn.threshold": [
      6.772043707314879e-05,
      -0.0010311088990420103,
      0.00026727668591775,
      0.0003648157580755651,
      7.836605800548568e-05,
      -7.307346095331013e-06
    ],
    "transformer.h.3.attn.leak": [
      4.1205854415893555,
      3.3335938453674316,
      3.0772533416748047,
      3.2958037853240967,
      2.649461507797241,
      4.079954624176025
    ],
    "transformer.h.3.attn.steepness": [
      -0.05060664564371109,
      0.706669807434082,
      1.0484724044799805,
      0.7285473346710205,
      1.40766179561615,
      -0.04971630498766899
    ],
    "transformer.h.3.attn.refractory_strength": [
      1.5196118354797363,
      1.9293618202209473,
      1.9332290887832642,
      1.2979931831359863,
      2.0977487564086914,
      1.7703672647476196
    ],
    "transformer.h.3.attn.cross_layer_weight": [
      -0.04763004183769226,
      0.6374484300613403,
      0.521733820438385,
      0.32604482769966125,
      0.2925611436367035,
      0.22731353342533112
    ],
    "transformer.h.3.attn.head_persistence": [
      -0.0671522244811058,
      -0.011211607605218887,
      -0.01990901678800583,
      -0.11269789934158325,
      -0.18470050394535065,
      0.06683224439620972
    ],
    "transformer.h.3.attn.head_boost_strength": [
      -3.525015354156494,
      -3.2095558643341064,
      -3.26023006439209,
      -3.124298334121704,
      -2.6843504905700684,
      -3.3252925872802734
    ],
    "transformer.h.4.attn.threshold": [
      -0.00011637835996225476,
      -0.00024619794567115605,
      1.5486886695725843e-05,
      -0.0008357509505003691,
      -0.0017434520414099097,
      8.506154699716717e-05
    ],
    "transformer.h.4.attn.leak": [
      3.914478302001953,
      3.5290517807006836,
      3.651853322982788,
      3.4338576793670654,
      3.5704801082611084,
      3.148162364959717
    ],
    "transformer.h.4.attn.steepness": [
      0.10329651832580566,
      0.4827709496021271,
      0.3962877094745636,
      0.6213610172271729,
      0.4826216697692871,
      0.8627916574478149
    ],
    "transformer.h.4.attn.refractory_strength": [
      1.167741298675537,
      1.0318446159362793,
      -0.30425721406936646,
      1.200527548789978,
      1.4436824321746826,
      1.5645102262496948
    ],
    "transformer.h.4.attn.cross_layer_weight": [
      -0.5371109247207642,
      -0.4795817732810974,
      -0.03774470463395119,
      -0.5740067362785339,
      -0.017203621566295624,
      0.2792412340641022
    ],
    "transformer.h.4.attn.head_persistence": [
      0.3047349452972412,
      0.27296262979507446,
      0.26050204038619995,
      0.24597816169261932,
      0.24544085562229156,
      0.3593396842479706
    ],
    "transformer.h.4.attn.head_boost_strength": [
      -3.3089518547058105,
      -3.1823883056640625,
      -3.3299715518951416,
      -3.3100876808166504,
      -3.410841226577759,
      -3.0752317905426025
    ],
    "transformer.h.5.attn.threshold": [
      0.0004307095368858427,
      0.00026713282568380237,
      -7.445127994287759e-05,
      8.631004311610013e-05,
      0.00018644884403329343,
      0.00019928233814425766
    ],
    "transformer.h.5.attn.leak": [
      3.2895214557647705,
      3.4699974060058594,
      3.9987354278564453,
      3.7984910011291504,
      3.442239761352539,
      3.28428053855896
    ],
    "transformer.h.5.attn.steepness": [
      0.750006914138794,
      0.5438563823699951,
      0.04208895191550255,
      0.21847611665725708,
      0.5748958587646484,
      0.7045961022377014
    ],
    "transformer.h.5.attn.refractory_strength": [
      1.3346589803695679,
      0.20148427784442902,
      0.28227338194847107,
      0.7629743814468384,
      0.7950733304023743,
      0.6999736428260803
    ],
    "transformer.h.5.attn.cross_layer_weight": [
      -1.141876220703125,
      -1.4840338230133057,
      -1.7811105251312256,
      -1.531549096107483,
      -0.9790729284286499,
      -1.4654024839401245
    ],
    "transformer.h.5.attn.head_persistence": [
      1.0,
      1.0,
      1.0,
      1.0,
      1.0,
      1.0
    ],
    "transformer.h.5.attn.head_boost_strength": [
      -3.1835429668426514,
      -3.1884994506835938,
      -3.3110294342041016,
      -3.2964000701904297,
      -3.2172462940216064,
      -2.9979939460754395
    ]
  }
}