{
  "model_type": "refrac+head",
  "seed": 314,
  "n_params": 10745340,
  "best_val_loss": 1.4716079235076904,
  "total_time": 2807.3797590732574,
  "config": {
    "n_layer": 6,
    "n_head": 6,
    "n_embd": 384,
    "block_size": 256,
    "max_iters": 5000,
    "dropout": 0.2,
    "batch_size": 64
  },
  "history": [
    {
      "iter": 0,
      "train_loss": 4.251460552215576,
      "val_loss": 4.244527816772461,
      "elapsed": 15.340830087661743
    },
    {
      "iter": 500,
      "train_loss": 1.8337147235870361,
      "val_loss": 1.9606248140335083,
      "elapsed": 285.9535050392151
    },
    {
      "iter": 1000,
      "train_loss": 1.3822864294052124,
      "val_loss": 1.6032301187515259,
      "elapsed": 554.8330800533295
    },
    {
      "iter": 1500,
      "train_loss": 1.2388410568237305,
      "val_loss": 1.5073318481445312,
      "elapsed": 848.9999029636383
    },
    {
      "iter": 2000,
      "train_loss": 1.1553764343261719,
      "val_loss": 1.4835528135299683,
      "elapsed": 1155.4538362026215
    },
    {
      "iter": 2500,
      "train_loss": 1.0891096591949463,
      "val_loss": 1.4716079235076904,
      "elapsed": 1437.7284801006317
    },
    {
      "iter": 3000,
      "train_loss": 1.0215277671813965,
      "val_loss": 1.4936184883117676,
      "elapsed": 1721.712434053421
    },
    {
      "iter": 3500,
      "train_loss": 0.9607301950454712,
      "val_loss": 1.5181890726089478,
      "elapsed": 1998.0749168395996
    },
    {
      "iter": 4000,
      "train_loss": 0.8992184996604919,
      "val_loss": 1.5346221923828125,
      "elapsed": 2270.996474981308
    },
    {
      "iter": 4500,
      "train_loss": 0.8404909372329712,
      "val_loss": 1.5890743732452393,
      "elapsed": 2539.800966024399
    },
    {
      "iter": 4999,
      "train_loss": 0.7858082056045532,
      "val_loss": 1.616449236869812,
      "elapsed": 2807.1965329647064
    }
  ],
  "lif_params": {
    "transformer.h.0.attn.threshold": [
      -3.7430870634125313e-06,
      6.631607539020479e-05,
      -2.3261349201202393,
      0.0018984798807650805,
      -2.840158224105835,
      0.7406113743782043
    ],
    "transformer.h.0.attn.leak": [
      5.197731971740723,
      4.430832862854004,
      -0.15958769619464874,
      4.266341686248779,
      -0.8024188280105591,
      2.419785499572754
    ],
    "transformer.h.0.attn.steepness": [
      -1.0960320234298706,
      -0.43457233905792236,
      4.309906959533691,
      -0.2655565142631531,
      4.62109899520874,
      1.6690516471862793
    ],
    "transformer.h.0.attn.refractory_strength": [
      0.6840872168540955,
      -0.7688712477684021,
      0.9632349610328674,
      -0.4522787630558014,
      0.32426387071609497,
      -0.21804660558700562
    ],
    "transformer.h.0.attn.cross_layer_weight": [
      -2.0,
      -2.0,
      -2.0,
      -2.0,
      -2.0,
      -2.0
    ],
    "transformer.h.0.attn.head_persistence": [
      1.0,
      1.0,
      1.0,
      1.0,
      1.0,
      1.0
    ],
    "transformer.h.0.attn.head_boost_strength": [
      -2.0,
      -2.0,
      -2.0,
      -2.0,
      -2.0,
      -2.0
    ],
    "transformer.h.1.attn.threshold": [
      -0.1613233983516693,
      0.4553484618663788,
      0.23876269161701202,
      -0.0001056078981491737,
      -0.0001892819273052737,
      -0.00014280012692324817
    ],
    "transformer.h.1.attn.leak": [
      3.984999656677246,
      2.984565019607544,
      4.3570332527160645,
      2.809152841567993,
      3.8133533000946045,
      4.35754919052124
    ],
    "transformer.h.1.attn.steepness": [
      -0.0032927696593105793,
      1.025111198425293,
      -0.3050236105918884,
      1.173831582069397,
      0.1300179809331894,
      -0.317852646112442
    ],
    "transformer.h.1.attn.refractory_strength": [
      -0.26380857825279236,
      -0.8177024722099304,
      -0.3379897177219391,
      -1.1440767049789429,
      0.05187275633215904,
      -0.5567865371704102
    ],
    "transformer.h.1.attn.cross_layer_weight": [
      -1.633529543876648,
      -1.5306315422058105,
      -2.0048792362213135,
      -1.5467017889022827,
      -1.6019110679626465,
      -1.9803409576416016
    ],
    "transformer.h.1.attn.head_persistence": [
      -0.08160652965307236,
      -0.16801999509334564,
      0.2397189438343048,
      1.7343124151229858,
      1.9427075386047363,
      -0.34538891911506653
    ],
    "transformer.h.1.attn.head_boost_strength": [
      -2.2779834270477295,
      -2.0481081008911133,
      -2.645740032196045,
      -2.980924367904663,
      -2.970226526260376,
      -2.473798990249634
    ],
    "transformer.h.2.attn.threshold": [
      -0.3116243779659271,
      0.0005743538495153189,
      0.0021048265043646097,
      -0.0016553935129195452,
      -1.3977713584899902,
      0.0005559026612900198
    ],
    "transformer.h.2.attn.leak": [
      4.375827312469482,
      4.412757873535156,
      2.6948540210723877,
      3.997354745864868,
      0.5834268927574158,
      3.002592086791992
    ],
    "transformer.h.2.attn.steepness": [
      -0.36709436774253845,
      -0.4134751558303833,
      1.346907138824463,
      -0.006287114229053259,
      3.44492244720459,
      1.2256191968917847
    ],
    "transformer.h.2.attn.refractory_strength": [
      -0.3302291929721832,
      1.634016752243042,
      2.315232515335083,
      1.1228868961334229,
      2.511406898498535,
      2.382896900177002
    ],
    "transformer.h.2.attn.cross_layer_weight": [
      -1.3309892416000366,
      -1.1419116258621216,
      -1.2105389833450317,
      -1.4364144802093506,
      -0.2949879467487335,
      -1.0504392385482788
    ],
    "transformer.h.2.attn.head_persistence": [
      -0.5266151428222656,
      -0.21445782482624054,
      0.2683885097503662,
      1.7765851020812988,
      -0.3542208671569824,
      -0.4296187460422516
    ],
    "transformer.h.2.attn.head_boost_strength": [
      -2.0855002403259277,
      -3.100584030151367,
      -2.544837474822998,
      -3.314504623413086,
      -0.7876508831977844,
      -3.2947492599487305
    ],
    "transformer.h.3.attn.threshold": [
      -0.0003283749392721802,
      -0.0013813080731779337,
      -0.0011877416400238872,
      -1.0192679166793823,
      -0.00018097665451932698,
      -0.00020448671421036124
    ],
    "transformer.h.3.attn.leak": [
      4.007274627685547,
      3.037132501602173,
      2.369812250137329,
      1.849539041519165,
      4.2081122398376465,
      4.022385120391846
    ],
    "transformer.h.3.attn.steepness": [
      0.07740995287895203,
      1.0706448554992676,
      1.8399338722229004,
      2.126552104949951,
      -0.1489761918783188,
      0.02111874520778656
    ],
    "transformer.h.3.attn.refractory_strength": [
      1.9211556911468506,
      2.0824978351593018,
      2.1131021976470947,
      -1.4677011966705322,
      1.5169782638549805,
      1.8388673067092896
    ],
    "transformer.h.3.attn.cross_layer_weight": [
      0.629541277885437,
      0.7412108182907104,
      0.6082645058631897,
      -0.4434947371482849,
      0.039879556745290756,
      0.47642087936401367
    ],
    "transformer.h.3.attn.head_persistence": [
      -0.09613334387540817,
      -0.16892559826374054,
      0.5675442814826965,
      -0.36413300037384033,
      -0.014806720428168774,
      -0.2339305430650711
    ],
    "transformer.h.3.attn.head_boost_strength": [
      -3.521976947784424,
      -3.1813461780548096,
      -2.74869704246521,
      -1.183028221130371,
      -3.4013671875,
      -3.409982204437256
    ],
    "transformer.h.4.attn.threshold": [
      0.0007450057310052216,
      -3.676370033645071e-05,
      0.0004085832042619586,
      -0.00038941751699894667,
      0.002121791709214449,
      -0.0005840273224748671
    ],
    "transformer.h.4.attn.leak": [
      3.1831648349761963,
      3.9697811603546143,
      2.343691825866699,
      3.340161085128784,
      3.575322389602661,
      3.378350019454956
    ],
    "transformer.h.4.attn.steepness": [
      0.9114174246788025,
      0.07532123476266861,
      1.6853508949279785,
      0.7150551080703735,
      0.463192343711853,
      0.7136788964271545
    ],
    "transformer.h.4.attn.refractory_strength": [
      1.480039358139038,
      1.2279658317565918,
      2.0252528190612793,
      1.6604326963424683,
      1.356982707977295,
      1.3891358375549316
    ],
    "transformer.h.4.attn.cross_layer_weight": [
      -0.21286875009536743,
      -0.45195379853248596,
      0.16235320270061493,
      0.10578551143407822,
      -1.2564789056777954,
      -1.4023244380950928
    ],
    "transformer.h.4.attn.head_persistence": [
      0.49283045530319214,
      0.2290913611650467,
      0.4466482698917389,
      0.12672995030879974,
      0.3926961123943329,
      0.1208696961402893
    ],
    "transformer.h.4.attn.head_boost_strength": [
      -3.3212199211120605,
      -3.4532012939453125,
      -2.469650983810425,
      -3.3139796257019043,
      -3.359076976776123,
      -3.392301321029663
    ],
    "transformer.h.5.attn.threshold": [
      -0.00014557913527823985,
      -0.0005252065020613372,
      -0.0003807548782788217,
      0.0001904357341118157,
      -9.182833309751004e-05,
      -1.945057010743767e-05
    ],
    "transformer.h.5.attn.leak": [
      3.0027270317077637,
      3.3451836109161377,
      2.892194986343384,
      3.2612361907958984,
      3.258408784866333,
      3.533214807510376
    ],
    "transformer.h.5.attn.steepness": [
      0.9653699994087219,
      0.6374289989471436,
      1.068981647491455,
      0.7710133194923401,
      0.7130604386329651,
      0.490313857793808
    ],
    "transformer.h.5.attn.refractory_strength": [
      1.2947673797607422,
      1.4377487897872925,
      1.3529880046844482,
      1.3280583620071411,
      1.5500341653823853,
      -0.6381704211235046
    ],
    "transformer.h.5.attn.cross_layer_weight": [
      -0.8306309580802917,
      -0.0080087436363101,
      -1.0060738325119019,
      -1.3896822929382324,
      -0.5484535098075867,
      -0.7437222003936768
    ],
    "transformer.h.5.attn.head_persistence": [
      1.0,
      1.0,
      1.0,
      1.0,
      1.0,
      1.0
    ],
    "transformer.h.5.attn.head_boost_strength": [
      -2.747770309448242,
      -3.1498799324035645,
      -2.6837282180786133,
      -3.2762255668640137,
      -2.8896114826202393,
      -3.3438971042633057
    ]
  }
}