{
  "model_type": "refrac+head",
  "seed": 2024,
  "n_params": 10745340,
  "best_val_loss": 1.4687825441360474,
  "total_time": 2620.948191165924,
  "config": {
    "n_layer": 6,
    "n_head": 6,
    "n_embd": 384,
    "block_size": 256,
    "max_iters": 5000,
    "dropout": 0.2,
    "batch_size": 64
  },
  "history": [
    {
      "iter": 0,
      "train_loss": 4.22946834564209,
      "val_loss": 4.2254109382629395,
      "elapsed": 13.107320070266724
    },
    {
      "iter": 500,
      "train_loss": 1.8934794664382935,
      "val_loss": 2.009665012359619,
      "elapsed": 272.26085090637207
    },
    {
      "iter": 1000,
      "train_loss": 1.3906357288360596,
      "val_loss": 1.6078191995620728,
      "elapsed": 529.5646569728851
    },
    {
      "iter": 1500,
      "train_loss": 1.2345088720321655,
      "val_loss": 1.5034030675888062,
      "elapsed": 786.4252910614014
    },
    {
      "iter": 2000,
      "train_loss": 1.1481964588165283,
      "val_loss": 1.4752697944641113,
      "elapsed": 1044.4331450462341
    },
    {
      "iter": 2500,
      "train_loss": 1.0780041217803955,
      "val_loss": 1.4687825441360474,
      "elapsed": 1308.1491332054138
    },
    {
      "iter": 3000,
      "train_loss": 1.0074365139007568,
      "val_loss": 1.4882757663726807,
      "elapsed": 1575.324933052063
    },
    {
      "iter": 3500,
      "train_loss": 0.9418596029281616,
      "val_loss": 1.5159437656402588,
      "elapsed": 1846.300362110138
    },
    {
      "iter": 4000,
      "train_loss": 0.8776703476905823,
      "val_loss": 1.5623260736465454,
      "elapsed": 2105.5518028736115
    },
    {
      "iter": 4500,
      "train_loss": 0.8133007884025574,
      "val_loss": 1.5832678079605103,
      "elapsed": 2363.6109120845795
    },
    {
      "iter": 4999,
      "train_loss": 0.7512785196304321,
      "val_loss": 1.649400234222412,
      "elapsed": 2620.7752780914307
    }
  ],
  "lif_params": {
    "transformer.h.0.attn.threshold": [
      2.9601492881774902,
      -0.00023134323419071734,
      -2.0882339477539062,
      2.2694780826568604,
      0.0018950917292386293,
      -0.002266808645799756
    ],
    "transformer.h.0.attn.leak": [
      -0.8736092448234558,
      5.570074558258057,
      0.11437804996967316,
      0.28350257873535156,
      4.766072750091553,
      4.54966926574707
    ],
    "transformer.h.0.attn.steepness": [
      4.782525539398193,
      -1.5895432233810425,
      3.890183687210083,
      3.862213611602783,
      -0.7764788866043091,
      -0.5615286827087402
    ],
    "transformer.h.0.attn.refractory_strength": [
      0.8917149305343628,
      0.2676006257534027,
      0.7780518531799316,
      1.1135895252227783,
      -0.6208544969558716,
      -0.3201008439064026
    ],
    "transformer.h.0.attn.cross_layer_weight": [
      -2.0,
      -2.0,
      -2.0,
      -2.0,
      -2.0,
      -2.0
    ],
    "transformer.h.0.attn.head_persistence": [
      1.0,
      1.0,
      1.0,
      1.0,
      1.0,
      1.0
    ],
    "transformer.h.0.attn.head_boost_strength": [
      -2.0,
      -2.0,
      -2.0,
      -2.0,
      -2.0,
      -2.0
    ],
    "transformer.h.1.attn.threshold": [
      -0.0006284050177782774,
      0.28096574544906616,
      -1.7200630903244019,
      0.09119832515716553,
      0.0006234449683688581,
      0.24395039677619934
    ],
    "transformer.h.1.attn.leak": [
      3.0101845264434814,
      2.467250108718872,
      0.6723992824554443,
      3.8661370277404785,
      4.382823944091797,
      3.7129433155059814
    ],
    "transformer.h.1.attn.steepness": [
      0.9982981085777283,
      1.5287593603134155,
      3.308079481124878,
      0.12586824595928192,
      -0.36716678738594055,
      0.25265204906463623
    ],
    "transformer.h.1.attn.refractory_strength": [
      -0.5833525061607361,
      -0.8934969902038574,
      2.1352105140686035,
      0.11883655935525894,
      1.2356089353561401,
      0.33221885561943054
    ],
    "transformer.h.1.attn.cross_layer_weight": [
      -1.5538463592529297,
      -1.3471230268478394,
      -0.7571889162063599,
      -1.7518585920333862,
      -1.7730268239974976,
      -1.4309793710708618
    ],
    "transformer.h.1.attn.head_persistence": [
      1.8738099336624146,
      0.2625502943992615,
      -0.13654766976833344,
      -0.13977199792861938,
      1.1657096147537231,
      -0.007672539912164211
    ],
    "transformer.h.1.attn.head_boost_strength": [
      -2.966284990310669,
      -2.054927110671997,
      -0.5197501182556152,
      -2.2919974327087402,
      -3.072864294052124,
      -2.0984206199645996
    ],
    "transformer.h.2.attn.threshold": [
      1.567192554473877,
      -0.038592301309108734,
      -0.00015046494081616402,
      0.0002537687832955271,
      -0.0005930321640335023,
      0.0008879904053173959
    ],
    "transformer.h.2.attn.leak": [
      1.256075143814087,
      4.430952072143555,
      4.33669376373291,
      4.202873706817627,
      4.451446533203125,
      2.5526585578918457
    ],
    "transformer.h.2.attn.steepness": [
      2.618971586227417,
      -0.4127940833568573,
      -0.3046649098396301,
      -0.14444470405578613,
      -0.4050664007663727,
      1.765037178993225
    ],
    "transformer.h.2.attn.refractory_strength": [
      2.40065336227417,
      1.1050852537155151,
      1.4641330242156982,
      0.5970668196678162,
      1.423638939857483,
      2.175590753555298
    ],
    "transformer.h.2.attn.cross_layer_weight": [
      0.6938650608062744,
      -0.9420499205589294,
      -1.0842541456222534,
      -0.8479188084602356,
      -1.1308778524398804,
      -0.23749592900276184
    ],
    "transformer.h.2.attn.head_persistence": [
      -0.24990347027778625,
      0.39264047145843506,
      -0.23493260145187378,
      -0.13412386178970337,
      1.474480152130127,
      -0.18958531320095062
    ],
    "transformer.h.2.attn.head_boost_strength": [
      -0.7191926836967468,
      -3.013427495956421,
      -3.22395920753479,
      -3.3033335208892822,
      -3.513512134552002,
      -2.9740848541259766
    ],
    "transformer.h.3.attn.threshold": [
      4.744297621073201e-05,
      -0.0006536674918606877,
      -0.0002413555484963581,
      0.0001788666268112138,
      -0.0005489033064804971,
      -0.0002781937946565449
    ],
    "transformer.h.3.attn.leak": [
      4.083444595336914,
      2.238358974456787,
      3.521090269088745,
      3.472137689590454,
      3.8518285751342773,
      3.5639941692352295
    ],
    "transformer.h.3.attn.steepness": [
      -0.04656725376844406,
      1.8711161613464355,
      0.5996092557907104,
      0.5980720520019531,
      0.2011914849281311,
      0.48519808053970337
    ],
    "transformer.h.3.attn.refractory_strength": [
      0.6573511362075806,
      1.989794135093689,
      1.5203651189804077,
      1.6340194940567017,
      1.50638747215271,
      1.370816946029663
    ],
    "transformer.h.3.attn.cross_layer_weight": [
      0.2564811408519745,
      0.5938616394996643,
      0.1724938005208969,
      0.45705389976501465,
      0.1922498345375061,
      0.09250061959028244
    ],
    "transformer.h.3.attn.head_persistence": [
      -0.10438176244497299,
      -0.08426637947559357,
      -0.0979512482881546,
      0.06519161909818649,
      1.7916123867034912,
      -0.03476671129465103
    ],
    "transformer.h.3.attn.head_boost_strength": [
      -3.2094504833221436,
      -2.401550769805908,
      -3.417266368865967,
      -3.308049201965332,
      -3.6471269130706787,
      -3.3012282848358154
    ],
    "transformer.h.4.attn.threshold": [
      -0.0003298678493592888,
      -0.0009774604113772511,
      0.0005604882026091218,
      0.0011010157177224755,
      -1.0411980152130127,
      -0.00019831935060210526
    ],
    "transformer.h.4.attn.leak": [
      3.3896963596343994,
      3.216106414794922,
      3.4494071006774902,
      2.8796470165252686,
      2.041842460632324,
      3.822744131088257
    ],
    "transformer.h.4.attn.steepness": [
      0.6772079467773438,
      0.7996444702148438,
      0.6167822480201721,
      1.1897504329681396,
      1.9088199138641357,
      0.21368172764778137
    ],
    "transformer.h.4.attn.refractory_strength": [
      1.4889529943466187,
      1.4083609580993652,
      1.1494324207305908,
      1.6310505867004395,
      -1.3772951364517212,
      0.3641117513179779
    ],
    "transformer.h.4.attn.cross_layer_weight": [
      0.10575799643993378,
      0.23490871489048004,
      -0.49657562375068665,
      -0.3936053514480591,
      0.251044899225235,
      -1.1122204065322876
    ],
    "transformer.h.4.attn.head_persistence": [
      0.31292977929115295,
      0.27496418356895447,
      0.23651234805583954,
      0.3495818078517914,
      0.273524671792984,
      0.30268722772598267
    ],
    "transformer.h.4.attn.head_boost_strength": [
      -3.419541358947754,
      -3.1532444953918457,
      -3.3332624435424805,
      -2.998441457748413,
      -1.1651262044906616,
      -3.289428472518921
    ],
    "transformer.h.5.attn.threshold": [
      8.159851131495088e-05,
      0.0005496837547980249,
      -5.763645822298713e-05,
      -0.0005366645054891706,
      0.000935749732889235,
      0.00045848527224734426
    ],
    "transformer.h.5.attn.leak": [
      4.204586029052734,
      3.234670639038086,
      4.089846611022949,
      2.867150068283081,
      3.3794920444488525,
      4.020092964172363
    ],
    "transformer.h.5.attn.steepness": [
      -0.18518391251564026,
      0.7805978655815125,
      -0.07646206766366959,
      1.1465799808502197,
      0.6015926599502563,
      0.011109285987913609
    ],
    "transformer.h.5.attn.refractory_strength": [
      0.21395829319953918,
      0.706788957118988,
      0.18361397087574005,
      -0.9076634049415588,
      0.47234052419662476,
      0.35459333658218384
    ],
    "transformer.h.5.attn.cross_layer_weight": [
      -2.313896656036377,
      -1.4482262134552002,
      -2.201333999633789,
      -2.1053786277770996,
      -1.308956503868103,
      -1.8009016513824463
    ],
    "transformer.h.5.attn.head_persistence": [
      1.0,
      1.0,
      1.0,
      1.0,
      1.0,
      1.0
    ],
    "transformer.h.5.attn.head_boost_strength": [
      -3.268162965774536,
      -3.1028261184692383,
      -3.325212240219116,
      -2.8405942916870117,
      -3.0620882511138916,
      -3.309473991394043
    ]
  }
}