{
  "model_type": "refrac+head",
  "seed": 1234,
  "n_params": 10745340,
  "best_val_loss": 1.5006952285766602,
  "total_time": 2690.1534860134125,
  "config": {
    "n_layer": 6,
    "n_head": 6,
    "n_embd": 384,
    "block_size": 256,
    "max_iters": 5000,
    "dropout": 0.2,
    "batch_size": 64
  },
  "history": [
    {
      "iter": 0,
      "train_loss": 4.299676418304443,
      "val_loss": 4.290848255157471,
      "elapsed": 13.818794012069702
    },
    {
      "iter": 500,
      "train_loss": 1.9271725416183472,
      "val_loss": 2.023970127105713,
      "elapsed": 280.3963420391083
    },
    {
      "iter": 1000,
      "train_loss": 1.4467346668243408,
      "val_loss": 1.6538500785827637,
      "elapsed": 548.6489088535309
    },
    {
      "iter": 1500,
      "train_loss": 1.3149875402450562,
      "val_loss": 1.564663052558899,
      "elapsed": 815.9072608947754
    },
    {
      "iter": 2000,
      "train_loss": 1.233781099319458,
      "val_loss": 1.5202842950820923,
      "elapsed": 1084.6149470806122
    },
    {
      "iter": 2500,
      "train_loss": 1.1727389097213745,
      "val_loss": 1.5057705640792847,
      "elapsed": 1352.676288843155
    },
    {
      "iter": 3000,
      "train_loss": 1.1177008152008057,
      "val_loss": 1.5006952285766602,
      "elapsed": 1621.0478539466858
    },
    {
      "iter": 3500,
      "train_loss": 1.0588791370391846,
      "val_loss": 1.5200226306915283,
      "elapsed": 1887.9665887355804
    },
    {
      "iter": 4000,
      "train_loss": 1.0074145793914795,
      "val_loss": 1.5328021049499512,
      "elapsed": 2156.167935848236
    },
    {
      "iter": 4500,
      "train_loss": 0.9545741081237793,
      "val_loss": 1.563543677330017,
      "elapsed": 2424.1809079647064
    },
    {
      "iter": 4999,
      "train_loss": 0.901228666305542,
      "val_loss": 1.5594438314437866,
      "elapsed": 2689.9764189720154
    }
  ],
  "lif_params": {
    "transformer.h.0.attn.threshold": [
      0.0006857416010461748,
      2.1814277172088623,
      0.0003890430089086294,
      -6.6735833570419345e-06,
      -0.20382779836654663,
      -0.0005501204286701977
    ],
    "transformer.h.0.attn.leak": [
      4.33383321762085,
      -0.05151453986763954,
      3.7008917331695557,
      4.417971611022949,
      3.0567538738250732,
      4.207320213317871
    ],
    "transformer.h.0.attn.steepness": [
      -0.3374054431915283,
      4.077925205230713,
      0.23944543302059174,
      -0.3961515724658966,
      0.9664437770843506,
      -0.20519670844078064
    ],
    "transformer.h.0.attn.refractory_strength": [
      -0.9454193711280823,
      1.261356234550476,
      -0.10556158423423767,
      -0.8128864169120789,
      0.17171715199947357,
      -0.623023509979248
    ],
    "transformer.h.0.attn.cross_layer_weight": [
      -2.0,
      -2.0,
      -2.0,
      -2.0,
      -2.0,
      -2.0
    ],
    "transformer.h.0.attn.head_persistence": [
      1.0,
      1.0,
      1.0,
      1.0,
      1.0,
      1.0
    ],
    "transformer.h.0.attn.head_boost_strength": [
      -2.0,
      -2.0,
      -2.0,
      -2.0,
      -2.0,
      -2.0
    ],
    "transformer.h.1.attn.threshold": [
      -0.0002493172069080174,
      0.16463665664196014,
      0.16295281052589417,
      0.010136664845049381,
      9.034897811943665e-05,
      -0.029204174876213074
    ],
    "transformer.h.1.attn.leak": [
      4.770533561706543,
      4.449170112609863,
      2.692028522491455,
      4.239977836608887,
      3.8877980709075928,
      4.708152770996094
    ],
    "transformer.h.1.attn.steepness": [
      -0.7450287938117981,
      -0.44626253843307495,
      1.3289384841918945,
      -0.23309674859046936,
      0.1195048838853836,
      -0.7265506386756897
    ],
    "transformer.h.1.attn.refractory_strength": [
      0.08467140048742294,
      0.07186826318502426,
      -1.140432357788086,
      0.40796226263046265,
      0.528065025806427,
      1.1186344623565674
    ],
    "transformer.h.1.attn.cross_layer_weight": [
      -1.4105675220489502,
      -1.3487248420715332,
      -1.3633593320846558,
      -1.3506654500961304,
      -1.3839608430862427,
      -1.3825627565383911
    ],
    "transformer.h.1.attn.head_persistence": [
      0.9704359173774719,
      -0.27076220512390137,
      -0.08296065777540207,
      -0.28118714690208435,
      -0.36562928557395935,
      -0.13194043934345245
    ],
    "transformer.h.1.attn.head_boost_strength": [
      -2.4146313667297363,
      -2.1383168697357178,
      -2.0815634727478027,
      -2.328061103820801,
      -2.8313071727752686,
      -2.7985281944274902
    ],
    "transformer.h.2.attn.threshold": [
      4.392707342049107e-05,
      -2.4674664018675685e-06,
      -0.0005613662069663405,
      -0.000620867358520627,
      -8.99350743566174e-06,
      0.015461735427379608
    ],
    "transformer.h.2.attn.leak": [
      4.442383289337158,
      3.8158962726593018,
      4.331596374511719,
      4.580694675445557,
      4.2698822021484375,
      3.7787861824035645
    ],
    "transformer.h.2.attn.steepness": [
      -0.4344528913497925,
      0.28688952326774597,
      -0.3011234700679779,
      -0.5812854170799255,
      -0.1965314894914627,
      0.22820982336997986
    ],
    "transformer.h.2.attn.refractory_strength": [
      1.2379004955291748,
      1.7701642513275146,
      1.0245977640151978,
      0.6885104179382324,
      1.3867791891098022,
      0.7592764496803284
    ],
    "transformer.h.2.attn.cross_layer_weight": [
      -0.7049214243888855,
      -0.7280745506286621,
      -0.9227780103683472,
      -0.7362397313117981,
      -0.7749161720275879,
      -0.27539438009262085
    ],
    "transformer.h.2.attn.head_persistence": [
      1.0891271829605103,
      -0.06983965635299683,
      -0.07552359998226166,
      -0.548604428768158,
      -0.4986671805381775,
      -0.02204221859574318
    ],
    "transformer.h.2.attn.head_boost_strength": [
      -3.0506410598754883,
      -3.432183265686035,
      -3.120483875274658,
      -2.71340012550354,
      -3.1766881942749023,
      -2.9015936851501465
    ],
    "transformer.h.3.attn.threshold": [
      -0.3493104577064514,
      0.0006306066061370075,
      -0.32868441939353943,
      -0.0001673471269896254,
      -0.0001793943374650553,
      -0.03349403291940689
    ],
    "transformer.h.3.attn.leak": [
      2.0183048248291016,
      3.5277960300445557,
      2.424713134765625,
      4.146242618560791,
      3.5264699459075928,
      4.06422758102417
    ],
    "transformer.h.3.attn.steepness": [
      1.9572218656539917,
      0.4640401303768158,
      1.7355964183807373,
      -0.026781165972352028,
      0.5202142596244812,
      0.007384002208709717
    ],
    "transformer.h.3.attn.refractory_strength": [
      -1.8897939920425415,
      0.6432963013648987,
      1.966851830482483,
      1.6331418752670288,
      1.187474012374878,
      1.7234554290771484
    ],
    "transformer.h.3.attn.cross_layer_weight": [
      -0.42388850450515747,
      0.708152174949646,
      0.4989164471626282,
      0.001047360710799694,
      0.47098100185394287,
      0.41952571272850037
    ],
    "transformer.h.3.attn.head_persistence": [
      -0.5538763999938965,
      0.022700531408190727,
      -0.2585482597351074,
      -0.2144879698753357,
      -0.4613918960094452,
      0.3149815797805786
    ],
    "transformer.h.3.attn.head_boost_strength": [
      -1.8373560905456543,
      -2.8439810276031494,
      -2.6322546005249023,
      -3.5428524017333984,
      -3.2532806396484375,
      -3.369061231613159
    ],
    "transformer.h.4.attn.threshold": [
      -0.00037790482747368515,
      0.0008455328643321991,
      -0.001377017586492002,
      -0.0027153550181537867,
      0.002152091823518276,
      -0.006333643104881048
    ],
    "transformer.h.4.attn.leak": [
      3.5701329708099365,
      2.4231886863708496,
      3.0773746967315674,
      3.0797600746154785,
      3.3079452514648438,
      2.548905611038208
    ],
    "transformer.h.4.attn.steepness": [
      0.5668914914131165,
      1.811441421508789,
      1.0520352125167847,
      0.9940283894538879,
      0.8166362643241882,
      1.6201753616333008
    ],
    "transformer.h.4.attn.refractory_strength": [
      1.635210633277893,
      1.83786940574646,
      1.3034718036651611,
      1.314287781715393,
      1.2066258192062378,
      1.753648281097412
    ],
    "transformer.h.4.attn.cross_layer_weight": [
      0.2680823504924774,
      0.12214277684688568,
      -0.15718108415603638,
      0.3536028563976288,
      -0.20531703531742096,
      -0.43317946791648865
    ],
    "transformer.h.4.attn.head_persistence": [
      0.026229167357087135,
      0.13067232072353363,
      0.3257504105567932,
      0.18587099015712738,
      0.020174095407128334,
      0.7820896506309509
    ],
    "transformer.h.4.attn.head_boost_strength": [
      -3.5799827575683594,
      -2.86761474609375,
      -3.316880702972412,
      -3.1683573722839355,
      -3.4767796993255615,
      -2.9146621227264404
    ],
    "transformer.h.5.attn.threshold": [
      -8.637616701889783e-05,
      1.9741146388696507e-06,
      -0.0015195994637906551,
      -7.034621376078576e-05,
      -0.0005581943551078439,
      0.0004615178913809359
    ],
    "transformer.h.5.attn.leak": [
      3.50028395652771,
      3.7834701538085938,
      2.8457882404327393,
      2.843480110168457,
      3.4387075901031494,
      1.9858498573303223
    ],
    "transformer.h.5.attn.steepness": [
      0.5370266437530518,
      0.2191406488418579,
      1.19206702709198,
      1.199519157409668,
      0.5924285054206848,
      2.0293917655944824
    ],
    "transformer.h.5.attn.refractory_strength": [
      1.1481866836547852,
      -1.2973350286483765,
      0.9493164420127869,
      1.4623186588287354,
      1.153388500213623,
      1.9350413084030151
    ],
    "transformer.h.5.attn.cross_layer_weight": [
      -0.5767653584480286,
      -1.174104928970337,
      -0.6985522508621216,
      0.06772992759943008,
      -0.20110046863555908,
      0.21228544414043427
    ],
    "transformer.h.5.attn.head_persistence": [
      1.0,
      1.0,
      1.0,
      1.0,
      1.0,
      1.0
    ],
    "transformer.h.5.attn.head_boost_strength": [
      -3.3834996223449707,
      -3.323021411895752,
      -2.906090021133423,
      -3.0122811794281006,
      -3.3728420734405518,
      -2.2630629539489746
    ]
  }
}